{
  "architecture": [
    1,
    8,
    8,
    1
  ],
  "weights": [
    [
      [
        0.6401936974756404
      ],
      [
        -0.18733140513271396
      ],
      [
        -0.8036985585534089
      ],
      [
        -0.1518052394348537
      ],
      [
        0.4724833894472211
      ],
      [
        -0.7918259387212849
      ],
      [
        -0.4767263871949379
      ],
      [
        0.9182444186170773
      ]
    ],
    [
      [
        -0.05367589718223442,
        -0.8377892008527525,
        -0.11743519070863817,
        0.3613174586370955,
        0.21015756689309684,
        -0.7197586943649499,
        -0.22715873777492668,
        0.4408867406143868
      ],
      [
        0.40715980497004245,
        0.8378744324981842,
        -0.4049647159400458,
        -0.19937956861120298,
        0.3055868515651905,
        0.6865830333792331,
        0.9440443241625571,
        -0.4516747094451532
      ],
      [
        0.34432344773513224,
        -0.34245529089695004,
        -0.9133955182773605,
        0.0043616314858636596,
        -0.6762853012696617,
        0.7358532356567522,
        -0.790391238242284,
        -0.9310280047039989
      ],
      [
        0.6147618635369116,
        -0.606232252077836,
        -0.9438933862380401,
        -0.13176250025656122,
        -0.9467547937057628,
        0.9831053884528276,
        -0.5094144465972688,
        0.33525117957607
      ],
      [
        0.1503003938784826,
        0.7196228172826469,
        -0.7859356183040429,
        -0.6603680301096004,
        -0.055787173711579596,
        -0.2729357087961679,
        0.486349024109888,
        -0.6689229188108641
      ],
      [
        0.02354418100735467,
        -0.9257613492559484,
        -0.5427208314735077,
        0.10629747858796823,
        0.2929275325659595,
        0.08691562599545133,
        0.4103002577467221,
        0.03137088203759886
      ],
      [
        -0.7045585745708272,
        -0.060779777910861865,
        -0.602282947896811,
        0.08131060626018782,
        -0.09527228336158289,
        -0.7876836030573311,
        0.5965486470997232,
        -0.03370202161838942
      ],
      [
        -0.9107109816669494,
        0.08095115548678167,
        0.8853252387557522,
        -0.82422193211769,
        0.8160370415565976,
        0.19474313007063104,
        0.1453022008306939,
        0.33094755722398395
      ]
    ],
    [
      [
        -0.647445414046687,
        0.2554949231399142,
        -0.4170926229845735,
        -0.8759150526806936,
        -0.0299882851697717,
        0.0605637878503511,
        0.3789665527571886,
        -0.007209943672033425
      ]
    ]
  ],
  "biases": [
    [
      -0.31184910163956836,
      -0.20444685561785714,
      0.576274299662636,
      -0.4215486385802756,
      -0.8174073429444226,
      0.45135166977301666,
      0.18607325133834962,
      0.4794529142539927
    ],
    [
      -0.6135687014772147,
      0.3783540133645613,
      0.613943764228835,
      0.3215227166178354,
      -0.3375232489393589,
      -0.9115090151898857,
      0.2049112942567075,
      0.6466703809019518
    ],
    [
      -0.02040436765729159
    ]
  ],
  "activation": "RELU"
}